digraph Tree {
node [shape=box, style="filled, rounded", color="black", fontname="helvetica"] ;
edge [fontname="helvetica"] ;
0 [label=<Genre &le; 1.5<br/>gini = 0.469<br/>samples = 801<br/>value = [500, 301]<br/>class = Mort>, fillcolor="#f5cdb0"] ;
1 [label=<Pclass &le; 1.5<br/>gini = 0.302<br/>samples = 524<br/>value = [427, 97]<br/>class = Mort>, fillcolor="#eb9e66"] ;
0 -> 1 [labeldistance=2.5, labelangle=45, headlabel="True"] ;
2 [label=<Age &le; 53.0<br/>gini = 0.469<br/>samples = 109<br/>value = [68, 41]<br/>class = Mort>, fillcolor="#f5cdb0"] ;
1 -> 2 ;
3 [label=<Age &le; 17.5<br/>gini = 0.491<br/>samples = 90<br/>value = [51, 39]<br/>class = Mort>, fillcolor="#f9e1d0"] ;
2 -> 3 ;
4 [label=<gini = 0.0<br/>samples = 3<br/>value = [0, 3]<br/>class = Vivant>, fillcolor="#399de5"] ;
3 -> 4 ;
5 [label=<Age &le; 22.5<br/>gini = 0.485<br/>samples = 87<br/>value = [51, 36]<br/>class = Mort>, fillcolor="#f7dac5"] ;
3 -> 5 ;
6 [label=<gini = 0.0<br/>samples = 5<br/>value = [5, 0]<br/>class = Mort>, fillcolor="#e58139"] ;
5 -> 6 ;
7 [label=<Age &le; 28.5<br/>gini = 0.493<br/>samples = 82<br/>value = [46, 36]<br/>class = Mort>, fillcolor="#f9e4d4"] ;
5 -> 7 ;
8 [label=<gini = 0.426<br/>samples = 13<br/>value = [4, 9]<br/>class = Vivant>, fillcolor="#91c9f1"] ;
7 -> 8 ;
9 [label=<gini = 0.476<br/>samples = 69<br/>value = [42, 27]<br/>class = Mort>, fillcolor="#f6d2b8"] ;
7 -> 9 ;
10 [label=<Age &le; 75.5<br/>gini = 0.188<br/>samples = 19<br/>value = [17, 2]<br/>class = Mort>, fillcolor="#e89050"] ;
2 -> 10 ;
11 [label=<Age &le; 60.5<br/>gini = 0.105<br/>samples = 18<br/>value = [17, 1]<br/>class = Mort>, fillcolor="#e78845"] ;
10 -> 11 ;
12 [label=<Age &le; 59.0<br/>gini = 0.198<br/>samples = 9<br/>value = [8, 1]<br/>class = Mort>, fillcolor="#e89152"] ;
11 -> 12 ;
13 [label=<gini = 0.0<br/>samples = 7<br/>value = [7, 0]<br/>class = Mort>, fillcolor="#e58139"] ;
12 -> 13 ;
14 [label=<gini = 0.5<br/>samples = 2<br/>value = [1, 1]<br/>class = Mort>, fillcolor="#ffffff"] ;
12 -> 14 ;
15 [label=<gini = 0.0<br/>samples = 9<br/>value = [9, 0]<br/>class = Mort>, fillcolor="#e58139"] ;
11 -> 15 ;
16 [label=<gini = 0.0<br/>samples = 1<br/>value = [0, 1]<br/>class = Vivant>, fillcolor="#399de5"] ;
10 -> 16 ;
17 [label=<Age &le; 9.5<br/>gini = 0.233<br/>samples = 415<br/>value = [359, 56]<br/>class = Mort>, fillcolor="#e99558"] ;
1 -> 17 ;
18 [label=<Pclass &le; 2.5<br/>gini = 0.495<br/>samples = 29<br/>value = [13, 16]<br/>class = Vivant>, fillcolor="#daedfa"] ;
17 -> 18 ;
19 [label=<gini = 0.0<br/>samples = 9<br/>value = [0, 9]<br/>class = Vivant>, fillcolor="#399de5"] ;
18 -> 19 ;
20 [label=<Age &le; 0.71<br/>gini = 0.455<br/>samples = 20<br/>value = [13, 7]<br/>class = Mort>, fillcolor="#f3c5a4"] ;
18 -> 20 ;
21 [label=<gini = 0.0<br/>samples = 1<br/>value = [0, 1]<br/>class = Vivant>, fillcolor="#399de5"] ;
20 -> 21 ;
22 [label=<Age &le; 2.5<br/>gini = 0.432<br/>samples = 19<br/>value = [13, 6]<br/>class = Mort>, fillcolor="#f1bb94"] ;
20 -> 22 ;
23 [label=<gini = 0.278<br/>samples = 6<br/>value = [5, 1]<br/>class = Mort>, fillcolor="#ea9a61"] ;
22 -> 23 ;
24 [label=<gini = 0.473<br/>samples = 13<br/>value = [8, 5]<br/>class = Mort>, fillcolor="#f5d0b5"] ;
22 -> 24 ;
25 [label=<Age &le; 32.25<br/>gini = 0.186<br/>samples = 386<br/>value = [346, 40]<br/>class = Mort>, fillcolor="#e89050"] ;
17 -> 25 ;
26 [label=<Age &le; 31.5<br/>gini = 0.206<br/>samples = 292<br/>value = [258, 34]<br/>class = Mort>, fillcolor="#e89253"] ;
25 -> 26 ;
27 [label=<Pclass &le; 2.5<br/>gini = 0.186<br/>samples = 279<br/>value = [250, 29]<br/>class = Mort>, fillcolor="#e89050"] ;
26 -> 27 ;
28 [label=<gini = 0.111<br/>samples = 51<br/>value = [48, 3]<br/>class = Mort>, fillcolor="#e78945"] ;
27 -> 28 ;
29 [label=<gini = 0.202<br/>samples = 228<br/>value = [202, 26]<br/>class = Mort>, fillcolor="#e89152"] ;
27 -> 29 ;
30 [label=<Pclass &le; 2.5<br/>gini = 0.473<br/>samples = 13<br/>value = [8, 5]<br/>class = Mort>, fillcolor="#f5d0b5"] ;
26 -> 30 ;
31 [label=<gini = 0.444<br/>samples = 3<br/>value = [2, 1]<br/>class = Mort>, fillcolor="#f2c09c"] ;
30 -> 31 ;
32 [label=<gini = 0.48<br/>samples = 10<br/>value = [6, 4]<br/>class = Mort>, fillcolor="#f6d5bd"] ;
30 -> 32 ;
33 [label=<Age &le; 38.5<br/>gini = 0.12<br/>samples = 94<br/>value = [88, 6]<br/>class = Mort>, fillcolor="#e78a46"] ;
25 -> 33 ;
34 [label=<Age &le; 34.25<br/>gini = 0.056<br/>samples = 35<br/>value = [34, 1]<br/>class = Mort>, fillcolor="#e6853f"] ;
33 -> 34 ;
35 [label=<gini = 0.133<br/>samples = 14<br/>value = [13, 1]<br/>class = Mort>, fillcolor="#e78b48"] ;
34 -> 35 ;
36 [label=<gini = 0.0<br/>samples = 21<br/>value = [21, 0]<br/>class = Mort>, fillcolor="#e58139"] ;
34 -> 36 ;
37 [label=<Age &le; 45.25<br/>gini = 0.155<br/>samples = 59<br/>value = [54, 5]<br/>class = Mort>, fillcolor="#e78d4b"] ;
33 -> 37 ;
38 [label=<gini = 0.245<br/>samples = 28<br/>value = [24, 4]<br/>class = Mort>, fillcolor="#e9965a"] ;
37 -> 38 ;
39 [label=<gini = 0.062<br/>samples = 31<br/>value = [30, 1]<br/>class = Mort>, fillcolor="#e68540"] ;
37 -> 39 ;
40 [label=<Pclass &le; 2.5<br/>gini = 0.388<br/>samples = 277<br/>value = [73, 204]<br/>class = Vivant>, fillcolor="#80c0ee"] ;
0 -> 40 [labeldistance=2.5, labelangle=-45, headlabel="False"] ;
41 [label=<Age &le; 2.5<br/>gini = 0.113<br/>samples = 150<br/>value = [9, 141]<br/>class = Vivant>, fillcolor="#46a3e7"] ;
40 -> 41 ;
42 [label=<Pclass &le; 1.5<br/>gini = 0.5<br/>samples = 2<br/>value = [1, 1]<br/>class = Mort>, fillcolor="#ffffff"] ;
41 -> 42 ;
43 [label=<gini = 0.0<br/>samples = 1<br/>value = [1, 0]<br/>class = Mort>, fillcolor="#e58139"] ;
42 -> 43 ;
44 [label=<gini = 0.0<br/>samples = 1<br/>value = [0, 1]<br/>class = Vivant>, fillcolor="#399de5"] ;
42 -> 44 ;
45 [label=<Pclass &le; 1.5<br/>gini = 0.102<br/>samples = 148<br/>value = [8, 140]<br/>class = Vivant>, fillcolor="#44a3e6"] ;
41 -> 45 ;
46 [label=<Age &le; 49.5<br/>gini = 0.048<br/>samples = 82<br/>value = [2, 80]<br/>class = Vivant>, fillcolor="#3e9fe6"] ;
45 -> 46 ;
47 [label=<Age &le; 25.5<br/>gini = 0.029<br/>samples = 68<br/>value = [1, 67]<br/>class = Vivant>, fillcolor="#3c9ee5"] ;
46 -> 47 ;
48 [label=<gini = 0.077<br/>samples = 25<br/>value = [1, 24]<br/>class = Vivant>, fillcolor="#41a1e6"] ;
47 -> 48 ;
49 [label=<gini = 0.0<br/>samples = 43<br/>value = [0, 43]<br/>class = Vivant>, fillcolor="#399de5"] ;
47 -> 49 ;
50 [label=<Age &le; 50.5<br/>gini = 0.133<br/>samples = 14<br/>value = [1, 13]<br/>class = Vivant>, fillcolor="#48a5e7"] ;
46 -> 50 ;
51 [label=<gini = 0.5<br/>samples = 2<br/>value = [1, 1]<br/>class = Mort>, fillcolor="#ffffff"] ;
50 -> 51 ;
52 [label=<gini = 0.0<br/>samples = 12<br/>value = [0, 12]<br/>class = Vivant>, fillcolor="#399de5"] ;
50 -> 52 ;
53 [label=<Age &le; 56.0<br/>gini = 0.165<br/>samples = 66<br/>value = [6, 60]<br/>class = Vivant>, fillcolor="#4da7e8"] ;
45 -> 53 ;
54 [label=<Age &le; 23.5<br/>gini = 0.142<br/>samples = 65<br/>value = [5, 60]<br/>class = Vivant>, fillcolor="#49a5e7"] ;
53 -> 54 ;
55 [label=<gini = 0.0<br/>samples = 17<br/>value = [0, 17]<br/>class = Vivant>, fillcolor="#399de5"] ;
54 -> 55 ;
56 [label=<gini = 0.187<br/>samples = 48<br/>value = [5, 43]<br/>class = Vivant>, fillcolor="#50a8e8"] ;
54 -> 56 ;
57 [label=<gini = 0.0<br/>samples = 1<br/>value = [1, 0]<br/>class = Mort>, fillcolor="#e58139"] ;
53 -> 57 ;
58 [label=<Age &le; 36.5<br/>gini = 0.5<br/>samples = 127<br/>value = [64, 63]<br/>class = Mort>, fillcolor="#fffdfc"] ;
40 -> 58 ;
59 [label=<Age &le; 1.5<br/>gini = 0.498<br/>samples = 116<br/>value = [54, 62]<br/>class = Vivant>, fillcolor="#e5f2fc"] ;
58 -> 59 ;
60 [label=<gini = 0.0<br/>samples = 4<br/>value = [0, 4]<br/>class = Vivant>, fillcolor="#399de5"] ;
59 -> 60 ;
61 [label=<Age &le; 32.0<br/>gini = 0.499<br/>samples = 112<br/>value = [54, 58]<br/>class = Vivant>, fillcolor="#f1f8fd"] ;
59 -> 61 ;
62 [label=<Age &le; 14.75<br/>gini = 0.5<br/>samples = 109<br/>value = [54, 55]<br/>class = Vivant>, fillcolor="#fbfdff"] ;
61 -> 62 ;
63 [label=<gini = 0.455<br/>samples = 20<br/>value = [13, 7]<br/>class = Mort>, fillcolor="#f3c5a4"] ;
62 -> 63 ;
64 [label=<gini = 0.497<br/>samples = 89<br/>value = [41, 48]<br/>class = Vivant>, fillcolor="#e2f1fb"] ;
62 -> 64 ;
65 [label=<gini = 0.0<br/>samples = 3<br/>value = [0, 3]<br/>class = Vivant>, fillcolor="#399de5"] ;
61 -> 65 ;
66 [label=<Age &le; 55.5<br/>gini = 0.165<br/>samples = 11<br/>value = [10, 1]<br/>class = Mort>, fillcolor="#e88e4d"] ;
58 -> 66 ;
67 [label=<gini = 0.0<br/>samples = 10<br/>value = [10, 0]<br/>class = Mort>, fillcolor="#e58139"] ;
66 -> 67 ;
68 [label=<gini = 0.0<br/>samples = 1<br/>value = [0, 1]<br/>class = Vivant>, fillcolor="#399de5"] ;
66 -> 68 ;
}